{"input_nodes": 64, "layers": [{"num_nodes": 8, "activation_func": "sigmoid", "nodes": null, "weights": {"rows": 8, "cols": 64, "arr": [[0.15538473307515832, -0.14669189770710137, -0.4850967183176941, 0.4920171274225806, 0.03842068799570641, 0.09896959008327429, -0.0122782150061219, 0.40936447575747736, -0.8554987423665309, 0.7770220948564477, 1.251819619183502, 1.2739240414707083, 0.5414071174199996, -0.5122474544315817, 0.1452920154289698, -0.7455362201770104, -0.49080375606040944, -0.2653438086432429, 0.5769704104538951, 0.5082530369862264, 1.0075694598554072, 0.7158415549318793, -0.14446582760266746, 0.4310037271569979, -0.613407558332687, 0.1443812883902995, 0.3614850218941935, 1.2260185356028763, 0.9536280569198634, 0.14697551326064426, -0.7998844872465916, -0.9306048787728051, 0.30381165077794625, 0.18393392790876253, 0.3030200969595272, -0.4287976766142437, -0.14963656672516357, 0.5679537694556673, -0.16481327026866394, -0.22176425825404222, -0.9926631808763197, 0.5825152252431609, 0.9279344455050518, -0.41523064320520614, -0.12659215682633349, -0.18027881692872763, -0.01135617781625049, -0.08680048847686828, 0.9001787380569536, -0.6846892422417437, -0.0342568906479184, 1.3035545961593835, -0.36434090764911353, -0.4950060329732279, 0.8224425456882252, 0.9306547578785556, 0.34087576298415617, 0.7382237580961688, -0.7053678593500856, 0.745016577965789, 1.2266117347958145, 0.09934463594199558, 0.1419797447624553, -0.7583573049065205], [0.9470596503309199, -0.3294623254160185, 0.5679013248423026, 0.41441331690468153, 2.0222360893996996, 2.1900342529716594, 0.18622941773797924, 0.5245453032080613, -0.43864265403069125, 1.4298185021737955, -1.1402510823919465, -0.31574627550973033, -1.8700264756887481, -1.9923986562274236, -0.4761930425637704, 0.1306840309209172, 0.030532643562622988, -0.7366284227710874, -1.7014314580640506, 0.31159035828123477, 1.5223279331806086, -4.433803240483266, -0.976542979267837, 1.1093786444389957, -0.8133779776207765, -0.48752414959418866, -1.4900690809259318, -0.2630781783527534, 2.1187165841493654, -2.0738861160239024, -1.8064132899723109, -0.9201340999025486, 0.28123344518175575, -0.020769565375764444, -0.3956650217390538, 0.9277553452568919, 4.93416929274878, 0.6214791656604225, -0.6813050598914424, 0.5797791518322757, -0.6179658029971652, -0.32781295732945837, 1.5517013897695673, 2.5970448729359092, 2.3973186546023943, 0.19103585922390154, 0.9840525941533377, -0.12107932042103065, 0.077852719409152, 0.8800959542015048, -0.1932161140266386, 1.96900338830394, 0.23991356512465017, -0.431432908431169, 0.19174889151186472, 0.8569017663171548, 0.6175390038618329, 0.4982731680904874, 0.331624475975133, 1.799493354653837, 0.325291454247176, -0.7906543160136413, -0.4671926948945894, 0.5695006467451204], [-0.6376018337922349, -0.5627247093847174, -0.17146491787591525, -0.03280555285984731, 0.41717224609071724, -0.2046346751396972, 0.9912513193133066, 0.495419981208848, 0.6738969400070631, -0.711331846906784, 0.975604084824468, -0.029727619725169834, 0.8659648058577524, -0.3466597970237639, 0.2749535237094542, 0.3805479988665025, 0.8705469322173339, -0.8090143287057335, 1.0641217487430177, 0.9302062825904828, -0.2911179689729158, 1.2705774637851708, 0.15288342471715846, -0.7870887916199953, -0.317833331398984, 0.2222337190193784, -0.007063926640297093, 0.8960845487919342, 0.8992465366354676, -0.0443479524845415, -0.5656897030792677, -0.3622973377330196, 0.21930340383834146, -0.6111433561661803, 0.7656431957683268, 0.5247241532351113, 0.5906484152265329, 0.09474790478555795, 0.013584480328792108, -0.2312907454261559, -1.0012290537670774, 0.3772603172913719, 0.21756310424433825, -0.018673654089416184, -0.7409621140755469, 0.7748573964986761, -0.6485883873078059, -0.6142896872824849, 0.721081767575366, -0.6640969529263983, 0.708519989123707, 0.671385371238377, -0.7027773290232411, 0.834931059297579, -0.676984419391039, 0.08077984839814531, 0.8282267700357154, 0.6325160337339193, 1.1902103419385464, -0.0879428371349519, 0.9174549205944796, 0.20000536418637935, -0.4099157360908056, 0.6613205394360748], [-0.9432165893117994, 0.022377324416723868, -0.11372104817006384, 0.5881902862716547, 0.7269396171031938, 0.7138234138807655, -0.44151834178493343, 0.20774403307845746, -0.7140525774077798, 0.9811645776193113, 1.1387765690183609, 0.2162453982192672, 1.1254606708102184, 0.5005812572137787, -0.5205389417517138, 0.4612309378713764, -0.5475690501970494, 0.32270521651395057, 1.1306834050855397, 0.711141593477885, 0.1648404000188167, 0.8467232183443344, -0.8804174787074703, 0.8544786202228155, -0.7946235334337065, -0.4005208961454803, -0.3707962789558694, -0.19636180899158323, -0.12542255128605567, 0.7266511310778502, -0.06612473872391948, 0.6477492798645745, 0.3935504392997835, 0.0019995028356367024, -0.24696854185338687, 1.191722319462081, 0.5118011563018114, 1.0086037176219542, -0.7440201587715438, 0.4856354592237846, -0.15540745592409705, -0.844902749707603, -0.4567582582800464, 0.5232944347818009, -0.10138721659189695, 0.7983090375777309, -0.19986697112691304, 0.9864604779195189, 0.689555044898779, -0.14521179547666488, -0.31939952019067863, 0.2271607670413207, -0.5502855520926092, 0.8165496672385046, 0.40266541342086304, 0.9176058724813174, 0.9570364354425076, 0.06943345807074221, -0.22261286886554138, 0.12334434300817682, 0.71398833490069, 0.8472820696267321, -0.2592465495868311, 0.687079533776972], [-0.9959560937926835, -0.9254803349128393, -0.2635813018884241, -0.8153542284804807, 0.19694247577045318, 0.9517834423892841, -0.3573264799784464, -0.6346933641604245, -0.5517601101960987, -0.678088245786834, -0.5800110756988933, 0.2704181089257207, -0.16317716122612994, 0.7567266188846046, 0.5231436641864075, -0.7910991077769716, 0.9951789828967733, -0.8371759654054393, 0.9675880848943179, 1.0987176423075113, -1.4496049422671122, -0.13885977626724502, 1.036912719786203, 0.8531180732773639, -0.5563089482304385, 0.9822701536343272, 2.018336423814148, 1.3634136803839685, -0.650765941486367, -0.33155387344687987, 0.6258956470452627, 0.2918739045493084, 0.2679737681171037, 0.8961542799436049, 0.96154943331101, 0.1660530264335148, -0.7166213910363306, 1.739038161069384, -0.2696294210179551, 0.6857149395664954, -0.6322635369576508, -0.05294110408311606, 0.944009106398514, 0.4511009595727451, 0.601446217312948, 1.630747913921222, 0.6186663547404964, -0.8787475039103337, -0.017039406563285717, -0.7798087734910037, 0.7056287378418288, -0.43715898492849464, -0.8417104892080766, -0.6025747764235304, -0.7743444480092968, -0.7033622170419885, 0.4735788062843338, 0.5417932335485284, -0.2667712413465862, 0.4911069404611514, -0.9383654277136703, -0.32587571134825133, -1.5452024384451193, -1.1661165385555663], [-0.6144300303878196, -0.6086785888876545, -0.513811272340035, -0.07409782672385633, 0.44678586856414987, 0.0313587601054116, -1.0922178001208516, -0.34736832728338046, -0.4801001044239799, 0.6139769164054993, -1.3230123441579635, 0.013331039594007539, 0.1688556192315672, -1.2740638769719188, -0.2282312916466083, -0.18449252534509336, 0.7868082856224307, -0.9114670647590374, -4.091485077154529, 0.5124841007857351, 4.069707304764297, -0.28148405494022427, 0.6817550110428052, 1.2614279383244085, 0.32781884436076036, 0.014926517439476858, -3.6716043274432644, -3.290760646943961, 1.433435404752245, -0.3559596417467062, 1.9377127451463532, -0.7975994867862083, 0.02131125598066208, 1.7614208326315728, -1.2036068913087736, -1.1695382535449417, 2.6023425326612886, 2.9494943104603406, 0.06724721424911029, 0.5238872695477619, 0.3419475484959479, 0.404696709790259, -1.6063783719150817, 1.7420181995684028, 1.8581888887398954, -0.558277139514291, -1.4228929562281625, 0.03204741574701816, 0.9110680307003363, 1.2286527415252264, -0.824885965660631, 0.6998891804187825, 1.9251225762613473, -0.6117277467802467, -0.906500016267545, -0.97359200454398, 0.33253625802227255, 0.2939684795654176, 0.30558814468097256, -0.034886362793621735, 1.529466354019106, 0.10898515344024455, 1.4442450952326553, 0.32168603175925203], [0.07731066192194835, 0.6953655600150939, 1.9316264310570739, 0.4937370248222569, -0.1923680396070382, 2.1944627650277564, 2.085664408888447, 0.7898250814449368, 0.6979875940924352, -0.05552317476073703, 1.3022288122537546, -0.1782708423247095, 1.3890072601951442, 2.289176446457751, 0.8254883305289463, -0.6926654665139981, 0.7192555379576375, 0.6318081429802039, -1.002581442719183, -1.2938955605654678, 1.9065180281182565, 0.8861595743107121, 0.05285289974635512, -0.2533264445823297, -0.07749713066246508, -1.7094815978245896, -2.011542685166776, 1.83060697047518, 3.3020784033840873, 0.595110612788102, -1.318424718743425, -0.3765934157125635, 0.3579791761037281, -3.0166587857822913, -1.5808273038896268, 1.4595742898293391, 0.8777243411744607, -2.214565905588827, -2.168640920338135, 0.28407925033661363, -0.9921525159255512, -0.997891305363199, -3.2300859725657896, -0.023505516146370413, -0.41276911538530003, -0.7448068081912802, -1.866320675975791, 0.4805988176434255, 0.009163922072224913, -0.3595051616953802, -1.0102494114159182, -0.8483530183667055, -0.17333713342390192, 0.681174452138251, 0.17906735084951153, 0.6114091769614673, 0.044021976168422496, 0.6905526814227421, 1.8644921490883504, 1.1847904635916047, 0.04026552951003352, 0.7331421691039539, 1.0212612937330527, 0.3218922680614268], [0.7779139310457606, -0.8421354758242873, 1.1225432985664248, 1.769432655165485, 0.8871277349774809, 2.4461760016450573, 1.3440824849978463, -0.19240214619794072, 0.41680227913753554, -0.17831940147248881, 2.556703131126616, 0.36103109222559926, 1.712518226768858, 1.8457072453267922, 1.094201188014445, 0.6720099586588072, 0.4483567684172381, 0.6945423375727474, 0.08587684132026825, -1.1351376449427082, 0.10747759361167195, 0.9473054702076392, -1.1606815129961516, 0.6915614192577251, -0.15659966894685384, -1.8069599302942256, -1.7114412039931206, 0.4031907715705119, 0.3932179031462174, -0.8001563104166721, -0.716079678358705, 0.3160998470035692, -0.43530107561510323, -1.5196034139427534, -1.3853587195823702, 0.6622913381323873, -1.2500108015253288, -1.1431847687592254, -1.0580710405745615, -0.390533711613271, -0.5284304819992024, -0.7977447770673046, -0.664381824933733, -0.8737017123020612, -2.1240795477779804, -0.13773337313060813, 1.273653851987991, 1.0133019660684242, -0.14563281488326896, -0.6856164934420654, 1.3396061229675253, 0.18878299524999623, -0.6814582494070104, 1.8344878939736913, 1.8190113056984798, 0.3147529974246096, -0.6427905556646708, 0.842140679266855, 0.8244264466901886, 0.8097252214402263, 0.952153618088422, 2.132189759916849, 0.7471859704025675, -0.4132894311060213]]}, "biases": {"rows": 8, "cols": 1, "arr": [[0.35641384777206175], [0.5225386379471607], [1.5083511213161318], [0.9163169138931259], [-0.042035301212389534], [1.1096290587386426], [-0.08685985890901947], [-0.34036247724695035]]}}, {"num_nodes": 8, "activation_func": "sigmoid", "nodes": null, "weights": {"rows": 8, "cols": 8, "arr": [[0.3014079978746612, 3.8281002215404416, -1.160720000176779, 0.003983491596487203, -0.11753235287642604, 2.758865277250521, 0.09969281819374654, -1.2585630500450617], [0.8073583537227861, -2.834458296864067, -0.4926642939450704, 0.1936291839058498, 0.4958006147703481, -1.0623682497034734, -2.834954604288431, 0.2455764362690301], [-0.8587839554035611, -1.180278868708122, -0.32294271556730764, -0.266954138778092, -1.2347073609090524, -1.0138488843396394, -0.021033749645395956, 0.05164963036571915], [-0.673657196857319, 0.6401375140068344, -0.3802210042166274, -0.33915116478892804, -0.3714560841595921, 0.16114680180142452, 5.404693253227668, 0.06323632871240416], [0.8225523939355882, 0.06500247703645283, 1.3973820111350055, 1.3564407416421946, 0.9672891111989635, 1.2252528521299817, 1.1093493095166809, 0.3951759078279317], [0.9432514505655482, -0.7302565742644226, 0.8002944808217098, -0.35951421402706907, 1.37939147053765, -1.3001973616075708, 0.3961888611624242, 1.570633063833334], [0.7159088910285082, 2.968890932173966, -0.09296730979265205, 0.07494404004754861, 0.9615421501365236, -0.1448246038172508, -4.203774995678504, -2.5861377703595814], [0.5374403977507838, 0.4404245152027314, 0.3552103327100878, -0.49663639684250216, -1.068453717932984, 4.191469317105305, 0.8826896911668921, -2.425028266617257]]}, "biases": {"rows": 8, "cols": 1, "arr": [[-0.21182360816337795], [1.0186014643847816], [-0.6664206740585529], [-1.0385938039020308], [0.43329246066169774], [-0.14774770731413142], [-0.20331544755622205], [-0.5517966612980458]]}}, {"num_nodes": 10, "activation_func": "sigmoid", "nodes": null, "weights": {"rows": 10, "cols": 8, "arr": [[-1.3477770255032715, 2.1583954631600184, 0.6594004214558781, -1.8308362259108715, -0.6411685501915445, 0.24473000567593475, -0.7981156781764, -0.38605082845214445], [0.23471338311798196, -1.0276027611665368, 0.8138404541514388, -0.505514603396968, -0.9815150051604778, 0.022558366256482436, -0.9205076574516644, 1.0917725282539648], [0.1827138856486232, -0.14463275372169623, 0.54355538824904, 0.3260629247997208, -0.5737870729677641, -1.4261146931061819, -1.182304451373671, 1.1259098361077373], [0.5783194247318396, -0.883453114195498, 0.10667895343166064, 0.5481786882380941, -1.3693737520624147, -0.6156470593109514, -0.4184277948822515, 0.7903749819472837], [0.8369055751611466, 0.2528469069962542, 0.012826146920961587, -1.3310912077320187, -1.7352628570496098, -1.9844861407611452, 2.0891725683868327, 1.567984881302799], [-0.1475349140402318, -0.369317884167383, -0.05031970743698942, 0.7577631006495047, -1.3864277574854866, -0.09037722195384021, 0.24553567006839316, -0.7307612014950675], [0.4039447396005367, 0.08649982028240073, -0.32693849709151407, -1.7288412158041704, -1.4542028391100663, 0.46150556240776053, 1.7215879315241385, -1.3369748169337905], [0.4972482665116, -0.4668627488988627, -0.1228309164877288, -0.11075422784848445, -1.3272750850369734, -0.8432463544107538, -1.0277559060542343, 0.12649749729858456], [0.7188240213263587, 0.0361286055349758, 0.8804425733338723, 0.7215436378056381, -0.4139662631999973, -0.24110943100035928, -0.36925661862000153, -1.263225273194635], [-1.9105175015930709, 0.18949423113605224, 0.8871270999240047, 1.131832419469632, -0.12311362018058104, -0.11930294052719768, -1.304325965071302, -0.341071550314072]]}, "biases": {"rows": 10, "cols": 1, "arr": [[0.06972361428529276], [-0.867118802319448], [-1.0691038490007485], [-1.1043813905599642], [-0.19174033441874094], [-0.7826505228648024], [-0.3298818183746588], [0.0011069424095925492], [-1.850151187767722], [-0.9100649420654703]]}}], "lr": 0.1, "epochs": 3}